svm_type c_svc
kernel_type rbf
gamma 0.01
nr_class 2
total_sv 576
rho 1.10656
label 1 0
nr_sv 283 293
SV
10 17:1 27:1 70:2 153:1 161:1 172:1 
6.42777732067707 6:1 30:1 40:1 47:1 51:1 66:1 72:1 88:1 98:1 99:1 138:1 169:1 182:1 244:1 
10 128:1 191:1 
10 96:1 
10 14:2 67:1 68:1 97:1 172:1 239:1 
6.350937083636047 17:2 67:1 75:1 98:2 115:1 136:1 244:1 
5.510854048001494 70:3 153:1 
10 
10 24:1 30:1 40:1 67:1 84:2 98:1 145:1 161:1 191:1 
8.511866374857414 123:1 149:2 
10 98:1 179:1 
10 124:2 203:2 205:1 216:1 
10 151:1 
10 14:1 28:1 30:1 51:1 98:1 128:1 214:1 220:1 
10 79:1 83:1 88:1 
0.1210043919060333 57:1 220:1 244:2 
10 24:1 82:1 128:1 138:1 207:1 249:1 
10 70:1 215:1 
10 14:1 51:1 151:2 159:1 191:1 209:1 220:1 
10 
10 56:1 93:1 138:1 235:1 
10 51:1 67:1 
1.020099614518737 6:2 27:1 30:1 42:1 88:1 97:5 124:5 147:1 153:1 172:1 203:2 214:1 220:1 
1.486964704355102 24:16 27:2 30:4 43:3 67:1 68:1 88:1 124:2 128:1 138:1 147:2 151:1 158:1 167:10 185:1 207:1 220:1 254:1 255:2 
0.7547915354165488 13:1 67:1 216:1 257:4 
10 191:1 203:1 244:1 
10 47:1 68:1 124:1 159:1 191:1 
8.754220109098588 6:1 13:2 14:2 29:1 30:1 88:2 98:1 104:1 124:1 135:1 138:2 151:1 153:1 179:1 203:2 210:1 235:3 246:1 
10 128:1 138:1 203:1 249:1 
10 138:1 231:1 238:1 239:2 
10 13:3 203:2 
10 6:1 30:1 40:1 47:1 51:1 66:1 72:1 88:1 98:1 99:1 138:1 169:1 182:1 244:1 
10 14:1 24:1 68:1 128:2 191:1 220:1 
0.8806367454577132 147:1 182:1 
10 96:1 207:1 
0.1960803986454801 6:1 24:2 47:2 58:1 88:3 132:1 136:1 203:1 231:1 237:1 
10 191:1 
10 19:1 71:1 129:1 
10 14:1 
10 67:1 
10 19:1 30:1 140:1 244:1 
10 191:1 
10 128:1 179:1 
10 67:1 
10 56:1 68:1 70:2 99:1 124:1 148:1 157:1 182:1 191:1 203:2 
10 6:1 67:1 129:1 
7.28340383718799 14:1 30:1 68:1 82:1 128:1 185:1 203:1 207:1 215:3 243:1 
1.096788687485441 6:7 24:3 54:1 58:1 59:1 67:2 68:1 88:1 98:2 101:1 103:1 123:1 135:1 172:1 203:1 207:1 214:2 232:1 250:8 
0.9417353686100411 24:10 27:2 47:1 57:1 61:1 83:1 88:1 98:1 113:2 124:2 128:1 129:1 151:1 161:1 179:2 194:1 203:1 220:2 229:11 234:1 239:1 246:1 257:1 
10 13:1 14:1 34:1 67:2 153:2 
10 51:1 68:1 138:1 191:1 
10 67:1 68:1 132:1 136:1 
0.1963344880141626 24:1 68:1 118:1 128:2 153:2 172:1 231:1 
10 6:1 19:1 24:1 159:1 
10 27:1 51:2 185:1 203:2 207:1 217:1 
10 138:1 203:1 237:1 
10 67:1 132:1 147:1 159:1 191:1 207:1 
10 138:2 
10 47:1 51:1 67:1 70:1 116:1 
10 19:1 70:1 
10 19:1 51:1 67:1 68:1 138:1 
10 68:2 
10 18:1 42:1 62:1 157:1 172:1 235:1 239:1 
10 11:1 62:1 70:1 203:1 
10 14:1 31:1 67:1 98:1 205:1 
0.3538524590106529 62:2 237:1 
10 185:1 
10 28:1 67:1 68:1 124:1 129:1 132:1 153:2 
10 66:2 136:1 217:1 234:1 
10 47:1 51:1 59:1 67:3 191:1 
10 128:1 
10 62:1 
10 1:1 39:1 82:1 96:1 
10 40:1 138:1 
10 147:1 
10 70:1 153:1 
10 67:1 153:1 
10 30:1 185:1 203:1 
4.904439846603182 11:1 83:1 118:1 124:1 128:1 
10 30:1 
10 203:1 
6.563819920267987 27:2 30:2 40:2 66:1 82:3 136:2 138:1 145:1 147:1 196:2 235:2 236:1 244:1 
10 51:1 68:1 124:2 151:1 185:1 
10 6:1 30:1 70:1 98:2 129:1 191:1 
4.705387056262392 14:1 40:2 66:1 98:1 124:1 237:1 239:1 245:3 
10 14:1 
10 135:1 214:1 
10 6:1 37:1 124:1 128:2 173:1 199:1 215:1 
1.300903792929909 13:1 24:2 27:3 50:10 124:2 128:1 135:3 
10 124:2 
10 19:1 138:1 164:1 
10 67:1 99:1 
10 30:1 123:1 205:1 
10 38:1 98:1 138:1 148:2 203:1 
10 54:1 67:1 70:1 
10 17:1 138:1 
10 67:1 70:1 
10 98:1 216:1 
10 14:1 40:1 138:1 195:2 
10 67:1 173:1 
10 98:1 115:1 173:1 
5.276287049860707 24:1 133:1 136:1 145:1 198:1 239:1 
0.923869816570264 70:1 124:1 185:1 
10 138:1 191:1 
10 6:1 67:1 239:1 
10 14:1 24:1 67:1 98:1 123:1 151:1 173:1 207:1 
10 6:1 98:1 124:1 128:1 151:1 191:1 244:1 
1.048568799293826 6:1 8:1 13:2 14:2 24:3 30:2 42:1 47:1 51:5 70:1 79:1 88:4 101:2 104:1 124:4 127:11 128:1 135:4 138:1 147:1 170:1 172:1 185:1 203:4 
10 41:1 93:1 98:1 153:1 172:1 191:1 203:1 207:1 
10 14:1 54:1 219:1 
10 67:1 148:1 203:1 
10 19:1 235:1 
10 138:1 
10 30:1 124:1 153:1 
10 
10 128:1 136:1 203:1 
10 29:1 172:1 173:2 207:1 215:1 
10 
10 13:1 67:1 
10 13:2 98:1 191:2 203:1 
10 24:1 59:1 161:1 203:1 207:1 239:1 
10 11:1 84:1 
10 27:1 51:2 80:1 93:1 203:2 
2.268149536972916 40:1 68:1 98:1 124:1 129:1 138:1 191:1 240:1 
10 30:1 220:1 237:1 
2.778335142434154 41:2 128:1 236:1 
10 237:1 
5.229076226615534 24:1 30:1 59:1 68:1 70:1 98:1 193:1 195:1 203:1 
10 14:1 24:1 98:1 128:1 
10 6:1 24:1 49:1 98:3 113:1 128:2 147:1 158:1 
2.256782595282706 6:1 14:1 24:1 51:1 54:1 84:1 138:1 153:1 203:1 220:1 
10 
10 14:1 24:1 98:1 128:1 157:1 203:1 
10 67:1 136:2 
10 
10 41:1 42:1 59:1 159:1 172:1 
10 
6.02524721861692 42:1 88:1 138:1 148:1 153:1 158:1 159:1 172:1 191:1 203:1 205:1 252:1 
10 
10 11:1 67:1 153:1 
10 49:1 
10 70:1 220:1 244:1 
3.049728106540383 24:1 40:1 47:1 66:2 128:1 129:1 153:1 231:1 
10 6:1 43:1 138:1 181:1 
3.17832934118256 67:1 83:1 138:1 
0.6014072648616721 11:1 24:1 179:1 203:1 
10 121:1 123:1 124:1 138:1 
10 30:1 185:1 203:1 207:1 237:1 
10 47:1 128:1 148:1 219:1 239:1 
10 43:2 47:1 66:1 67:1 129:1 173:1 
10 47:2 249:1 252:1 
10 124:1 172:1 
1.658858042615254 24:2 47:1 49:1 68:1 82:1 158:1 179:1 191:1 
10 118:1 121:2 124:2 153:1 191:1 
10 30:1 67:1 
1.430107885915033 8:1 24:1 211:1 227:1 231:1 235:1 242:1 
5.13605396348702 11:1 67:3 242:1 
10 6:1 24:1 30:1 40:1 47:1 88:1 102:1 123:1 124:1 149:1 153:3 172:1 203:1 231:1 
10 93:1 128:2 207:1 
10 30:1 59:1 70:1 128:1 207:2 244:1 
10 40:1 56:1 173:1 
10 51:1 53:1 
2.319930204961937 13:1 147:1 
10 14:1 49:1 
10 203:1 215:1 
10 68:1 129:1 
5.362155689290773 164:2 
2.004308253273623 13:3 64:7 88:3 121:5 153:2 179:1 230:1 239:2 
10 11:1 68:1 98:1 124:1 136:1 
10 
10 239:1 
4.669910626781169 8:1 51:1 57:1 
10 47:1 148:1 237:1 252:1 
10 138:1 
10 42:1 57:1 67:1 88:1 124:1 158:1 172:1 
0.008685362375931337 19:1 67:3 70:1 98:1 138:1 182:1 
7.0517920075841 51:1 93:1 124:1 131:1 165:1 185:1 
10 28:1 67:1 138:1 185:1 
10 14:2 30:1 42:1 70:1 98:1 172:1 191:1 
10 6:1 13:1 67:3 138:1 179:1 
10 87:1 172:1 
8.471936103016736 51:2 153:1 182:1 
5.668203761153475 6:1 13:1 24:1 159:1 203:1 
10 13:1 88:2 159:1 172:1 
10 59:1 68:1 70:1 164:1 
10 57:1 153:2 230:1 235:1 
10 11:1 19:4 24:1 
10 185:1 
10 54:2 113:5 148:1 
10 8:1 98:1 129:1 
10 49:1 68:2 138:1 
10 24:1 37:1 199:1 
9.52953483310195 47:2 104:1 116:1 153:1 167:1 191:1 237:3 
10 6:1 70:1 118:1 243:1 
10 125:1 
10 
10 
10 30:1 99:1 221:1 
10 153:1 191:1 221:1 252:1 
10 67:1 96:1 
10 68:1 104:1 118:1 185:1 203:1 217:1 
0.7905636854159147 5:7 24:5 27:3 29:1 30:3 40:3 47:1 62:1 66:1 72:1 75:2 128:2 132:1 135:1 136:1 148:2 153:2 159:1 160:2 198:1 203:3 207:1 217:2 
10 67:2 172:1 206:1 
10 40:1 51:1 129:1 151:1 191:3 203:1 207:1 231:1 
10 
3.08694402094306 13:1 133:2 231:1 235:2 257:2 
10 14:1 203:1 
6.121647203016006 24:1 27:2 30:1 47:1 70:1 99:2 128:1 135:1 203:1 
10 67:1 148:1 
10 6:1 14:1 30:2 40:1 47:1 58:1 82:1 98:1 124:1 135:3 138:1 205:1 
7.125746003853658 13:1 128:1 129:1 231:1 244:1 
10 14:1 24:1 68:1 136:2 191:4 
10 30:1 124:1 138:1 
9.412537317930758 51:1 67:2 156:1 191:1 199:1 
1.959367939844497 30:2 42:1 62:1 88:1 124:1 129:1 153:1 159:1 169:1 172:1 203:1 207:1 
10 98:1 159:1 
10 98:1 185:1 203:1 235:2 
10 70:1 
10 11:1 
0.8429009301172771 24:1 30:1 98:1 207:1 210:1 
10 13:1 27:1 30:1 128:1 138:1 203:1 257:1 
10 67:1 215:1 
10 
10 98:1 124:1 
10 70:1 
10 14:1 51:1 199:1 231:1 
10 42:1 62:1 98:2 172:1 
10 8:1 66:2 67:2 138:1 220:1 
10 14:1 115:1 123:1 
10 6:1 24:1 30:1 66:1 220:1 
6.184107946713276 19:2 30:1 84:1 121:1 153:1 159:1 239:1 244:2 
10 24:1 54:1 88:1 132:1 203:1 220:1 
10 24:1 67:1 82:1 98:1 124:1 
10 6:1 148:1 172:1 
10 54:1 115:1 124:1 
10 172:1 191:1 
10 27:1 47:1 138:1 147:1 153:1 191:3 239:1 
10 88:1 179:1 237:2 
10 104:1 138:1 153:1 
10 67:1 
10 6:1 68:1 70:1 98:2 124:1 138:1 185:1 
10 113:1 185:1 
10 
10 128:1 239:1 
10 96:1 220:1 
10 51:1 93:1 132:1 
10 67:1 70:1 124:1 
0.7583791892911612 6:1 24:2 27:1 69:2 118:1 132:1 135:1 136:1 147:1 156:1 161:1 169:1 203:1 220:1 241:1 
10 71:1 185:1 237:1 
10 14:1 30:1 58:1 93:1 118:2 124:1 231:2 239:1 
4.216326450430124 24:1 95:3 172:2 
10 129:1 
10 237:1 252:1 
10 244:1 
10 40:1 124:1 153:2 173:1 207:1 
10 67:1 172:1 
0.2332752078327143 42:1 67:2 118:1 196:1 
0.9400033582004524 56:1 71:1 83:1 88:1 124:1 140:1 172:1 209:1 237:1 
10 153:1 172:1 
10 66:1 84:1 
10 14:1 30:1 
10 27:2 62:1 68:2 239:1 
10 19:1 93:1 129:1 
10 11:1 147:1 151:1 207:2 
1.597842344447766 19:1 24:1 27:1 67:1 124:5 203:1 
10 42:1 62:1 172:1 
1.634060310078963 6:1 24:2 67:1 68:2 72:1 88:1 128:1 145:1 159:1 179:1 203:3 207:1 215:1 
10 236:1 
10 70:1 
10 54:1 124:1 215:1 239:1 
10 70:1 185:1 
10 37:1 132:1 244:1 
10 138:1 252:1 
10 42:1 98:1 219:1 237:1 
3.096063339120696 12:2 24:1 30:1 47:2 66:1 70:1 123:1 128:1 135:1 169:1 203:1 214:1 220:1 
10 47:1 56:1 59:1 67:1 124:1 150:1 153:1 172:1 205:1 235:1 
10 62:1 135:1 153:1 214:1 
10 
2.298858444209065 13:1 49:1 67:2 88:1 
10 14:1 40:1 51:1 54:1 203:1 
10 
1.048861317583874 17:5 42:1 67:1 88:1 172:1 177:8 191:1 195:1 199:1 240:1 
10 128:1 
-10 62:1 98:1 138:1 153:1 203:1 
-10 72:1 
-2.193215096217504 40:1 82:1 96:1 109:1 154:1 158:1 
-5.72659723602112 13:1 35:1 51:3 70:1 132:1 136:1 138:2 150:3 184:1 191:1 231:2 
-10 30:1 66:1 81:1 128:1 153:2 191:1 205:2 
-10 4:1 6:1 67:2 118:1 128:1 132:1 138:1 
-5.347977958859349 27:1 28:1 46:1 89:1 113:1 138:4 220:1 227:1 
-10 
-1.981797851180386 47:1 124:1 132:1 191:1 230:2 
-10 24:1 77:1 148:1 207:1 
-10 98:1 198:1 
-10 194:1 
-10 
-10 
-1.925505492515004 32:1 40:1 72:1 88:1 98:1 109:1 114:1 124:1 125:1 129:1 154:1 239:1 249:1 
-10 
-10 19:1 70:1 162:1 169:1 191:1 
-10 40:1 54:1 88:1 98:1 191:1 203:1 238:1 
-0.01490647238399752 47:1 71:1 87:1 153:1 203:1 
-10 6:1 14:1 24:1 82:1 173:1 203:1 234:1 
-10 88:1 132:1 136:1 214:1 
-10 21:1 
-10 9:1 19:2 67:1 68:1 70:2 82:1 98:1 99:1 191:1 220:1 
-10 
-10 6:1 67:2 68:1 74:1 124:1 128:1 138:1 191:1 203:1 
-1.993799417344992 16:1 67:1 68:1 115:1 123:1 128:1 134:1 159:1 207:1 227:1 253:1 
-10 6:1 
-5.315863583439137 72:1 128:1 210:1 248:1 
-8.988569225312693 43:2 54:1 70:1 105:1 124:1 128:1 
-10 98:1 
-10 153:1 
-10 13:1 136:1 138:1 224:1 
-2.954130539735822 13:1 47:1 51:1 66:1 82:1 172:1 203:1 212:5 235:1 252:1 
-10 62:1 67:3 124:1 
-10 
-8.551801195262129 14:1 28:1 51:1 67:1 176:1 203:1 220:1 241:1 
-0.9826126433338225 6:1 51:1 68:1 70:2 71:2 113:6 124:3 142:1 144:1 153:1 179:1 203:1 207:3 239:1 244:1 252:2 
-10 27:2 30:1 138:1 191:1 
-10 122:1 124:1 172:1 
-10 14:1 68:1 173:1 
-10 40:1 70:1 194:1 253:1 
-10 47:1 70:1 128:1 136:1 151:1 172:1 191:1 
-10 185:1 
-10 61:1 67:1 76:1 
-10 19:1 68:1 98:1 113:1 128:1 148:1 
-10 24:1 45:1 98:1 128:1 170:1 249:1 
-10 19:1 68:1 
-10 161:1 192:1 
-10 47:1 67:1 68:1 90:1 98:1 235:1 
-5.28804623198596 47:1 61:1 68:1 88:1 135:1 191:2 207:1 
-10 57:1 94:1 158:1 237:1 
-10 172:1 
-6.282122012481746 13:1 19:1 109:1 154:1 239:1 258:1 
-8.833306292665918 24:1 99:1 132:2 153:1 206:1 217:1 233:2 
-10 71:1 88:1 191:1 
-10 98:1 103:1 191:1 
-10 13:1 19:1 30:1 80:1 88:1 124:1 128:1 142:1 
-10 151:1 207:1 231:1 
-10 138:1 151:2 179:1 215:1 
-9.864137609667466 111:2 
-10 30:1 68:1 70:1 99:1 128:2 135:2 136:1 173:1 203:1 207:1 
-10 213:1 
-6.650721756267497 18:2 30:1 159:1 175:1 
-10 27:1 
-9.667198987824259 11:2 13:1 14:1 59:1 137:1 203:2 
-10 3:1 105:1 124:1 
-10 
-1.776787605695228 19:1 70:1 123:1 134:1 151:1 180:1 
-10 24:1 
-10 51:1 
-1.685371494419925 61:2 71:1 98:1 123:1 
-10 45:1 51:1 67:1 98:1 239:1 258:1 
-10 14:1 24:1 67:1 93:1 98:1 169:1 
-10 54:1 104:1 151:1 
-0.3618898660789251 47:1 68:1 191:1 256:1 
-0.2593684222531817 14:6 30:3 40:1 42:1 47:1 68:1 76:1 82:1 104:1 124:1 128:1 131:1 138:2 144:1 151:1 172:1 185:2 191:1 198:1 203:1 214:1 
-10 14:2 30:1 138:1 153:1 172:1 
-10 98:1 
-3.291731053962315 11:1 60:1 114:1 132:1 172:1 200:1 207:1 239:1 258:1 
-1.80684190280468 14:1 20:1 24:1 33:1 37:2 49:1 68:1 98:2 128:1 151:2 172:1 
-10 14:1 28:1 128:1 
-1.198727120034573 1:1 6:1 19:1 40:1 51:1 68:1 82:1 138:1 139:1 141:1 173:1 198:1 207:1 239:1 
-10 67:1 70:1 153:1 
-10 
-10 13:1 17:1 20:1 40:1 48:1 123:1 134:1 153:1 172:1 244:1 
-9.824139696477001 27:1 84:1 207:1 
-5.9548744917184 6:1 29:1 68:1 86:2 129:2 158:1 
-6.967707469123748 14:1 30:2 40:1 45:1 53:1 96:1 129:2 175:1 191:1 230:1 233:2 241:1 
-10 28:1 98:1 
-2.724098588497637 68:1 75:1 104:1 123:2 134:1 191:1 207:1 227:1 
-2.378283719961249 63:1 67:1 70:1 98:1 122:1 179:1 199:1 203:1 
-0.5755300734055281 40:2 51:2 113:1 116:1 132:2 203:2 238:1 
-10 51:1 153:1 182:1 203:1 235:1 237:1 
-7.43727531593599 6:1 67:2 77:1 157:1 191:1 
-10 19:1 180:1 
-10 14:1 19:1 82:1 203:1 215:1 
-10 47:1 
-2.396971508131284 6:1 29:1 66:2 67:1 68:2 124:2 153:1 159:1 162:1 191:2 207:1 237:1 
-2.39423639228011 14:1 213:1 
-7.595852228434729 6:1 68:1 98:1 104:1 162:1 191:2 203:1 231:1 235:1 244:1 
-10 30:1 51:1 98:1 175:1 246:1 
-9.119450448631692 6:1 68:2 72:1 82:1 129:1 217:1 
-10 67:2 
-10 23:1 
-10 32:1 33:1 67:1 98:1 151:1 244:1 
-10 67:1 88:1 198:1 
-10 14:1 51:1 54:1 179:1 
-10 44:1 51:1 62:2 67:1 203:2 
-10 14:1 128:1 203:1 
-10 24:1 48:1 51:1 68:1 186:1 191:1 203:1 
-0.768106400509192 43:2 52:1 135:1 200:1 
-10 3:1 13:1 51:1 203:1 
-5.188319277096705 68:1 72:1 85:1 135:1 203:1 
-10 42:1 
-10 203:1 
-10 185:1 191:1 199:1 
-10 71:1 124:2 172:1 195:1 246:1 
-4.416219934365681 13:3 27:2 46:1 66:1 91:2 98:1 100:1 121:1 132:1 138:2 144:1 172:1 182:1 203:3 207:1 234:1 237:3 
-10 68:1 235:2 
-10 70:1 93:2 138:1 190:1 
-2.68755131970163 14:1 27:1 40:1 42:1 98:1 128:2 172:1 201:1 207:1 
-10 191:1 249:1 
-1.571195483945977 75:1 158:1 
-10 42:1 43:1 67:1 160:1 
-10 24:1 124:1 150:1 158:1 210:1 211:1 
-10 6:1 161:1 173:1 185:1 
-10 14:1 47:1 70:1 124:1 148:1 203:1 
-10 124:1 136:1 139:1 185:2 207:1 
-10 11:1 14:1 24:1 30:1 33:1 47:1 69:1 98:1 187:1 203:1 231:1 
-9.733431554660038 17:1 20:1 47:1 93:1 127:1 170:1 172:1 224:1 237:1 244:1 
-9.570556157081834 14:1 67:1 95:2 118:1 153:2 172:1 191:2 203:1 220:1 
-9.567178489113275 68:1 98:2 128:1 
-9.782350368631413 53:1 98:1 138:1 153:1 213:1 
-10 128:1 138:1 
-10 13:1 67:1 121:1 124:1 153:1 231:1 
-2.687984659226275 70:1 88:1 98:1 170:1 186:2 
-0.6385729917841545 4:1 29:1 65:3 66:1 129:1 136:1 172:1 194:1 253:1 
-10 116:1 
-10 16:1 66:1 70:1 
-1.032506060264501 19:1 38:2 47:1 51:1 54:1 66:1 110:1 172:1 173:2 238:1 241:1 252:1 
-10 4:1 14:1 70:1 138:1 
-10 47:1 68:1 124:1 128:1 132:1 203:1 215:1 239:3 258:1 
-10 30:1 47:1 88:1 124:1 132:1 138:1 169:1 191:1 220:1 239:1 244:1 
-1.793174437758841 67:1 98:1 128:1 132:1 143:1 
-8.922616712891974 13:1 14:4 51:1 113:2 124:1 135:1 138:1 203:1 
-10 47:1 67:1 184:1 208:1 239:1 
-5.740355882751195 7:1 30:1 82:1 
-10 93:1 153:1 179:1 235:1 
-10 13:1 19:1 180:1 
-10 159:1 
-10 6:1 30:1 67:1 81:1 
-10 89:1 211:1 
-10 
-10 82:1 
-10 10:1 129:1 153:1 
-10 6:1 26:1 27:1 30:1 70:1 98:1 124:1 185:1 203:1 207:1 209:1 239:1 255:1 
-4.40916563446372 81:1 136:1 238:1 
-10 52:1 
-10 14:1 105:1 124:2 172:2 
-10 51:1 67:1 82:1 98:1 110:1 124:1 
-10 67:2 98:1 123:1 125:1 142:1 
-10 14:1 132:1 
-1.837660014146507 94:2 159:1 
-10 220:1 
-10 40:1 110:1 191:1 
-10 86:1 138:1 173:1 
-10 28:1 30:1 62:1 124:1 138:1 217:1 
-10 70:1 128:1 179:1 194:1 
-10 44:1 49:1 67:1 110:1 151:1 207:1 
-10 13:1 136:1 138:1 224:1 
-10 55:1 67:1 128:1 148:1 231:1 
-10 68:1 93:1 203:1 
-10 51:1 128:1 153:1 246:1 
-10 68:1 85:1 138:1 227:1 
-10 36:1 199:1 
-7.258880713080266 14:1 27:1 68:1 86:1 118:1 124:1 207:1 234:1 237:1 
-10 6:1 139:1 185:1 
-10 54:1 137:1 203:1 
-10 
-6.873291959326595 30:1 80:2 130:1 160:1 237:1 
-10 11:2 40:1 102:1 130:1 153:1 
-10 19:1 82:1 
-10 6:1 30:2 51:1 128:1 222:1 
-10 7:1 59:1 
-10 40:1 121:1 215:1 220:1 231:1 239:1 252:1 257:1 
-10 113:1 209:1 
-10 37:1 244:1 
-10 68:1 128:1 
-8.19848369977317 67:2 93:1 143:1 190:1 203:1 
-10 138:1 189:1 231:1 
-2.171822989222607 94:1 124:1 128:1 158:1 159:1 191:1 200:2 239:2 
-10 20:2 51:1 159:1 172:2 
-10 30:2 38:2 40:1 47:1 70:1 90:1 148:1 159:1 173:1 182:1 214:1 
-10 59:1 157:1 244:1 
-10 56:1 98:1 158:1 237:1 
-10 42:2 75:1 98:1 124:1 178:1 
-7.462681485946376 16:1 24:1 54:1 67:4 95:1 98:1 116:1 124:1 150:1 158:1 166:1 199:1 207:1 
-10 54:1 67:1 84:1 151:1 157:1 
-4.524324457788117 6:1 51:1 124:1 148:1 151:1 153:1 158:2 161:1 162:1 166:1 185:1 191:2 205:1 215:1 
-0.1053971278612642 6:2 70:1 191:1 194:1 
-6.788502758857263 30:1 67:1 100:1 136:1 139:1 173:2 185:1 207:1 234:1 
-5.238497239102836 30:1 138:1 175:1 189:1 191:1 
-10 14:1 98:1 124:1 145:1 184:1 237:1 
-10 4:1 191:1 
-9.641042029819214 56:1 112:1 138:1 157:2 199:1 252:1 
-10 22:1 67:2 136:1 220:1 
-3.554182657565576 110:1 141:1 
-10 
-10 56:1 113:1 193:1 203:1 215:1 244:1 
-10 19:1 70:2 160:1 248:1 
-10 62:1 67:1 136:1 138:1 159:1 193:1 
-10 153:1 159:1 203:1 252:1 
-10 14:1 123:1 134:1 203:1 
-5.053468424794648 88:1 113:3 138:1 173:1 220:2 239:2 
-2.702583381758113 6:1 16:1 24:1 49:1 51:1 100:1 128:1 132:1 153:2 158:1 161:1 185:1 191:1 207:1 224:1 
-0.2397162853099762 6:1 37:1 114:1 124:1 203:2 230:1 
-10 14:1 40:1 67:2 84:2 128:1 203:1 205:1 207:1 231:1 
-10 67:1 113:1 249:1 
-7.446456704356849 20:1 145:1 172:1 211:1 239:1 
-10 67:1 207:1 
-10 27:1 29:1 66:1 93:1 172:1 185:1 191:1 
-4.539153704843057 220:1 249:1 
-10 249:1 
-10 59:1 88:1 138:1 203:1 
-9.743969945540098 27:1 30:2 37:2 42:1 67:1 124:1 153:1 172:1 173:1 179:1 
-0.5437488943624077 14:1 30:2 68:1 70:2 113:1 128:1 137:1 148:1 151:1 203:2 222:1 
-10 67:1 68:1 153:1 
-10 59:2 98:1 159:1 171:1 
-10 42:1 124:1 129:1 138:1 172:1 237:1 
-10 6:1 138:1 249:1 
-7.218475547234717 19:2 47:1 67:1 94:1 128:1 138:1 144:1 191:1 
-10 98:1 103:1 191:1 
-1.910598475135749 59:1 67:1 75:1 151:2 192:1 203:1 207:1 239:1 
-10 
-0.6440109801783187 13:1 14:1 30:1 82:1 153:1 225:1 
-10 4:1 138:1 203:1 239:1 
-10 47:1 
-5.789143111889478 30:1 54:1 59:1 124:1 141:1 159:1 175:1 
-10 42:1 98:1 124:1 
-10 67:1 255:1 
-10 137:1 203:1 
-5.216028058166041 98:1 102:1 116:1 
-10 122:1 124:1 172:1 
-10 27:1 153:1 
-10 24:1 30:1 47:1 56:1 66:2 93:2 124:2 190:1 
-10 66:1 78:1 174:1 191:1 
-10 124:1 
-7.857279518508281 145:2 151:1 
-10 24:1 28:1 138:1 162:1 191:1 193:1 
-8.263769144880996 47:1 51:1 56:1 67:1 77:2 182:1 185:1 220:1 
-10 2:1 191:1 220:1 
-2.049750401648306 27:1 30:1 69:1 72:1 135:1 207:1 
-7.888170573997163 30:1 84:1 175:1 
-10 98:1 159:1 
-10 47:1 220:1 
-9.028568970710513 14:1 30:2 51:1 153:1 191:1 203:1 231:1 234:1 
-10 29:1 47:1 
-10 88:1 153:1 
-10 42:1 199:1 256:1 
-10 70:1 95:1 203:1 
-10 
-10 19:1 70:1 98:1 
-2.629280816373854 24:1 28:1 33:1 98:2 153:2 199:1 208:1 
-10 68:2 203:1 
-10 27:1 47:1 135:1 
-3.218755014074825 67:1 93:1 124:3 125:1 132:1 135:1 153:1 190:1 
-7.789846100855787 32:1 161:1 
-5.660626957792656 6:1 14:1 40:2 108:1 123:1 153:2 
-10 13:1 14:1 70:1 88:1 235:1 
-10 6:1 30:1 43:1 53:1 54:1 66:1 70:1 87:1 99:1 136:1 191:1 207:1 239:1 251:1 
-10 104:1 153:2 161:1 
-2.794570086576868 24:1 28:1 47:1 82:1 111:1 112:1 124:1 157:2 161:2 176:1 231:1 235:5 
-9.440543210487606 27:1 84:1 207:1 
-10 6:1 67:1 191:1 
-10 6:1 102:1 129:1 206:1 
-10 213:1 
-3.06525693045602 16:2 68:1 70:1 173:1 191:1 
-10 43:1 88:1 128:2 153:1 237:1 
-4.87253813660758 60:1 68:1 114:1 207:1 
-10 6:1 35:1 40:1 47:1 56:1 66:1 67:1 172:1 252:1 
-9.786850481350401 14:1 30:1 60:1 70:1 116:1 128:1 148:1 153:1 191:1 203:2 207:1 228:1 
-6.944977872590701 6:2 45:1 51:1 66:1 70:1 80:1 132:1 161:1 185:2 
-4.773779482718653 7:1 8:1 11:1 14:1 27:1 30:1 51:1 58:1 67:1 83:1 123:1 128:2 158:1 169:1 179:3 185:1 191:1 203:1 237:1 
-1.819756926326512 3:1 11:1 40:1 60:1 92:1 98:1 
-1.724069583495828 47:1 71:1 87:1 153:1 203:1 
-10 98:1 121:1 
-10 13:1 
-1.525397403656686 6:1 30:1 46:1 49:1 68:1 98:1 151:1 156:1 169:1 172:1 207:1 220:1 226:1 
-10 66:1 
-10 136:1 
-10 11:1 40:1 82:1 226:1 
-10 37:1 138:2 152:1 189:2 
-10 57:1 98:1 179:1 
